//Numpy array shape [29, 20]
//Min -34.381378173828
//Max 30.093185424805
//Number of zeros 0

#ifndef W3_H_
#define W3_H_

#ifndef __SYNTHESIS__
model_default_t w3[580];
#else
model_default_t w3[580] = {2.1252388954, -0.6344976425, -0.5260975361, -2.0145549774, -2.5393140316, -0.0534995496, 0.0060867388, -0.3607046008, 0.0002205388, 0.9336902499, -0.0489690453, 0.0092662172, 0.0285095442, -0.2303299159, 0.1320230514, -0.2108864635, 0.1651646495, -0.0010468890, 0.2138002813, -0.3009633720, 0.0507257171, 0.6330934763, 0.5523587465, -0.1316204667, -0.5562708974, 0.1599125564, -0.1654642075, -0.4264656007, 0.1093718112, -1.1067712307, -0.0797974542, -0.1106636822, 0.0912649482, 0.2171410620, -0.0005670494, 0.0443114564, -0.2231873572, 1.3033723831, 0.5819202662, -0.0005547708, -0.0695698783, 0.1557335556, 1.2648448944, 0.0343878344, 0.0383125730, 0.0063250279, -0.0293305553, 0.0507766530, 0.0325813517, 0.1524198353, 0.0090851476, -0.0846481398, 0.0085898153, -0.0378202461, 0.0484385081, 0.0063499925, -0.0589472502, 0.2499916404, 0.0024745231, -0.0183256194, 0.2321584076, -0.1014786065, -1.1817525625, -0.2191700637, -0.0961898416, -0.4222419262, 0.0033249829, -1.1371327639, 0.0001899973, 0.0938757136, -0.4546735883, 0.0021480555, 0.3400472701, -0.0129266689, 0.0002303741, 0.6440048814, 0.3770112991, 0.0010036951, 0.1805584133, -0.0738452449, -0.0362404138, 0.1137660593, 1.2467312813, 0.0400329307, 0.0571548045, 0.0075110262, -0.0015741129, 0.0605625510, -0.0020730013, 0.2186967432, -0.0104050357, 0.0724388063, -0.0301106125, -0.0100518335, 0.0146996500, 0.0036196094, -0.0424571857, -0.0478137247, -0.0143020693, -0.0036098994, -0.0053935745, 0.0058988654, 0.0508360900, 0.0002347225, -0.0043149828, 0.0003418441, -0.0004935839, 0.0014767528, -1.6263542175, 0.0033953926, -0.0000673459, -0.0040838597, 0.0003325373, 0.0023413447, -0.0010784959, 0.0005896176, -0.0006382109, 0.0020218783, 0.0007019840, -0.0007993104, -1.4628479481, -0.0101506189, 0.2377750427, 0.4463996291, 1.0338778496, 0.2175275236, 0.0095055699, 0.0071947281, -0.0001188003, 0.0117360409, -0.0316855647, -0.0011221331, 0.4051765501, -0.0201861355, -0.0008786804, 0.0378045626, -0.0342256315, 0.0000628893, 0.0091574676, -0.0081713796, -0.6202964783, -0.0080520622, -0.0676816925, 0.8873230219, 0.1082654297, 0.0694331601, 0.0037283155, -0.0111159869, -0.0086643165, 0.0070677623, 0.0209792871, -0.0055456432, -0.4441754222, 0.1131599322, 0.0007088228, -0.2708382308, 0.1082053185, 0.0104783475, -0.2241630852, -0.0358515941, -0.0088307206, 0.0221168529, -1.1354465485, 0.0179741587, 0.0628712401, -0.0071564601, -0.0234040376, -0.0007380767, -0.0746719092, 0.0265548732, 0.0011230297, -0.0116841691, 0.0171424765, -0.0064794836, 0.0092087965, -0.0065078107, 0.0045690127, -0.0252482947, -0.0050791106, 0.0082611479, 1.3467926979, 0.0102316216, -0.3984321654, -0.7638761997, -0.8054984212, -0.1924020350, -0.0090292618, 0.0010323068, -0.0016631351, -0.0147223091, 0.0122552570, 0.0019320373, -0.0679436848, -0.0401984416, -0.0007532821, 0.1094679758, -0.0295011699, -0.0025761558, 0.1061733738, 0.0241730344, 0.1310261488, -0.0397436880, 1.4186949730, -0.0288114920, 0.0016609790, 0.0075920820, 0.0268103573, -0.0019637602, 0.0200380478, -0.0383337811, -0.0029533857, 0.0233806334, -0.0060427850, -0.0109781353, 0.0079612434, 0.0008438028, -0.0100406958, -0.0082471436, -0.0028266388, -0.0034777876, -0.0251321457, -0.0264892206, 1.5147821903, 0.0018695225, -0.0372457653, 0.0051042554, 0.0074005397, 0.0053620017, 0.0865873322, 0.0263961516, 0.0037248263, -0.0124950930, -0.0068314425, 0.0025810278, -0.0026783436, 0.0017991905, -0.0052572992, 0.0205521882, 0.0024082740, 0.0002351958, 0.4509878159, -0.8888612986, -0.6524279118, -0.1209851876, -0.9875780344, -0.1480289996, 0.0118563557, 0.0785459653, 0.0005207759, 1.4615575075, -0.0442015827, 0.0164889060, 0.1407410502, -0.2331297845, 0.1965372413, 0.1167350709, 0.1888383627, -0.0039764689, 0.0782169253, -0.1055848524, 0.2061704546, 0.5552488565, 0.1307437569, 0.1074176431, 0.4262302518, 0.0625479743, -0.2249194086, 0.0036427816, -0.0359821618, -0.6232667565, -0.0545132682, -0.2182953656, -0.1244768426, 0.3242653310, 0.0004351281, 0.0144818211, -1.7774277925, -0.0549497083, -0.0109567177, -0.2927925885, -0.1300423741, 0.1420221478, 0.6211944818, 0.0201608501, 0.2223783731, 0.0055240486, -0.0144974776, 0.0475590453, 0.2084102631, 0.1387769282, -0.0125123365, -0.0320267454, -0.0118901115, 0.0338729620, -0.0202170610, -0.0056816302, -0.0207181945, -0.0722466707, -0.0084549757, -0.0249636155, 0.5918489695, -0.7726950645, 0.7940047383, -1.0256977081, -2.0501191616, -0.0156250931, 0.0397122838, 0.1223847792, 0.0004222121, -0.2407675833, -0.1220956072, 0.0543298572, 0.5420758128, -0.0045106742, -0.0037551266, -0.1389772445, 0.2609257102, 0.0089151151, 0.1947283298, -0.4936316609, 0.0125746252, 0.1521346569, 1.0823132992, 0.0473730341, 0.4559142590, 0.0106607787, 0.0035326723, 0.0904855281, 0.0001307132, 0.4539778829, -0.0087702107, 0.0569981858, -0.0219619367, 0.0310690552, -0.0162436441, 0.0005649859, -0.0644130707, -0.0982625932, -0.0106783649, 0.0007738912, -0.0096518556, 0.0390257426, 0.1523844451, -0.0008303535, -0.0102028530, 0.0014885591, -0.0086100474, 0.0068832911, -0.4022338092, 0.0240087379, -0.0020238257, -0.0207575113, 0.0010571535, 0.0161467511, -0.0081715789, -0.0001251543, -0.0018596107, 0.0004643945, 0.0025602353, -0.0100075714, -0.3930402398, -0.1177870184, -0.1189424694, 0.1466654092, 0.4463908374, -0.0136338398, 0.0333023667, 0.1195568964, -0.0058202152, -0.7258526087, 0.1114263088, -0.2578378916, 0.1188826337, -0.0409682542, -0.1553618759, 0.2172605097, -0.6114910841, -0.2516794801, 0.1297740191, 0.4015711546, 0.0235244520, 0.4174470603, 0.0337567814, 0.0128391841, -0.1002258062, -0.0214223731, -0.2019222826, 0.0429444090, 0.0022735391, -1.4951328039, -0.0536956154, 0.1300581843, -0.1388557851, 0.0724493191, 0.0321423225, 0.0213376936, -3.1791365147, -0.4205873609, -0.0279592294, -0.0874755383, -0.2021824569, -0.0992302671, 0.1485544294, 0.0629942864, 0.4186116457, 0.0041978429, 0.0841323435, 0.0329741314, -0.0007563171, 0.2078254819, 0.0227850098, -0.0084912367, -0.0246747471, -0.1177676991, 0.0957897380, 0.0069800382, -0.0293426737, 0.2702821493, -0.0142974481, 0.0331541784, -0.0599783547, -0.1431584060, -0.0087710787, -0.1762537807, -0.3329395354, -0.1033216789, -0.0345480181, 0.0243142750, 0.0099780029, 0.3216215968, 0.0165606383, -0.0201891921, -0.0778552592, 0.1621665806, -0.1245067045, -0.0174508747, -0.0524099655, -0.0115026962, -0.0182975344, 0.0842807367, 0.0097775906, 0.0760977566, 0.1359604299, -0.0843294486, -0.1110799387, -0.0312814116, -0.0868979618, -0.0101102283, -0.0053111790, -0.1470307708, -0.0100851143, -0.1500665694, 0.0613684952, 0.0293605812, -0.0358592011, -0.0127778091, -0.0038686215, 0.0073485724, -0.0064648306, -0.0183165390, 0.0560714528, 0.1061088890, 0.1530114859, 0.0091873556, -0.1380730420, -0.0255226996, -0.0469317026, 0.0409734696, -0.0329005159, -0.3055913746, 0.0226325840, -0.0388333276, 0.0229707453, -0.0677258298, 0.0110707786, -0.0323318243, 0.0106111234, -0.1354934573, -0.0508683398, 0.1106511280, 1.5650235415, 0.0598488711, -0.1446674168, 0.1531703621, -0.7428977489, -0.0846900791, 0.0564156435, 0.1940965503, -0.0121252025, -0.6382819414, 0.1353490651, 0.0115588959, 0.0676952600, -0.0379947871, -0.0154381646, 0.1101801172, -0.1088745147, 0.4886467159, 0.0818850398, 0.4349071383, -0.0067683198, -0.2675435841, 0.0640756935, -0.0151577769, -0.8595299721, -0.1344194114, 0.0848721862, 0.1699018180, -0.0049520121, -0.1287225336, -0.0244891550, -0.0625983551, -0.1344630271, 1.0201184750, -0.7852491140, 0.0619096942, 0.3138078153, 0.1112643182, 0.2188071162, -0.0440073088, 0.2058516592, 1.1503964663, -0.0686060935, -0.0006980220, 0.0597048998, 0.0827265158, -0.3598946333, -0.0377079211, -0.0072444794, -0.2190242559, 0.0015933526, 2.7937841415, -0.0754498169, 0.0596819557, -0.0199208520, 0.0377220064, -0.0991126373, 0.1813423485, 0.0484550707, 0.0213957559, -0.2748114765, -0.1557713896, -0.9517968297, 0.0527724102, -0.3509133160, -0.0024367198, -0.0092420271, -0.0208270364, 0.0842186734, -0.0508438535, -0.0120300809, 0.0295333974, -0.0010205340, 0.0754439980, -0.0767066255, -0.0149848228, 0.0274675526, -0.2016871274, -0.0006895684, -0.0037376680, -0.4894072711, 0.2502601147, 0.0776112825, -0.0466634855, 1.0956521034, -0.0485490263, -0.5574617982, -0.0623998456, 0.0125137446, 3.4061076641, -0.0589890741, -0.1065233573, -0.0328775942, 0.2524401546, 0.0893441439, -0.0030663081, 0.0099098347, 0.4680456817, 0.0427088588, -0.3523150384};
#endif

#endif
